{"name": "BinaryClassifier", "label": "feed_forward", "base_label": "feed_forward", "hparam": {"eta": 0.002, "eta_decay": 0.99, "beta_decay1": 0.9, "beta_decay2": 0.999, "momentum": 0.9, "l1_lambda": 0.001, "l2_lambda": 0.001}, "sequencer": {"name": "binary_classifier", "label": "sequencer", "base_label": "sequencer", "sequences": [{"index": 0, "name": "input", "label": "swish", "base_label": "nonlinear_gate_layer", "shape": [1, 2], "locked": true}, {"index": 1, "name": "hidden1", "label": "link", "base_label": "link_layer", "shape": [2, 32], "locked": true, "frozen": false, "weight": {"dtype": "float32", "values": [[0.7178844809532166, -0.005003779195249081, -0.019729137420654297, 0.25886350870132446, 0.41632241010665894, 1.0731396675109863, 0.3012078106403351, 0.1259448379278183, 0.1957637220621109, 0.3270077109336853, 0.774131715297699, 0.12468988448381424, 0.28983333706855774, 0.5590726137161255, -4.794600486755371, 0.10665058344602585, -0.13265396654605865, -0.45779627561569214, -4.086630821228027, 0.03504735976457596, 0.19334986805915833, 0.31058984994888306, 0.11307758092880249, -0.050232600420713425, 0.17948491871356964, 0.2208814173936844, 0.052080389112234116, 1.0624380111694336, 0.08788065612316132, 0.8402740955352783, 0.6240341067314148, 0.0810413658618927], [0.732567548751831, 0.7237262725830078, -0.6227412223815918, -0.6394067406654358, 0.6887598037719727, 1.1566312313079834, 0.953862190246582, -0.15542851388454437, -0.3609039783477783, 0.9018137454986572, 0.8523529171943665, -0.612281322479248, -0.7425445914268494, 0.7542917132377625, 0.7756983041763306, -0.7648215889930725, 0.6492555737495422, 0.5829892158508301, 0.7649108171463013, -0.6352366805076599, -0.7264683246612549, -0.5352445840835571, -0.6458075046539307, -0.4649299383163452, -0.8134734034538269, -0.7846142053604126, -0.8132973909378052, 0.8491408228874207, -0.952351450920105, 0.8770198822021484, 0.7343745231628418, -0.6987528204917908]]}, "bias": {"dtype": "float32", "values": [[-0.01405299361795187, -0.11374323815107346, 0.5339547991752625, 0.5523223280906677, 0.08542247861623764, 0.9175167083740234, -0.04287704452872276, 0.5855950117111206, 0.5286927223205566, 0.324360728263855, -0.03627978265285492, 0.4467731714248657, 0.49578702449798584, -0.311737060546875, 0.23016691207885742, 0.4620875120162964, 0.147627055644989, 0.12373863160610199, -0.061528999358415604, 0.32256412506103516, 0.47866272926330566, 0.39702269434928894, 0.46328333020210266, 0.3730964958667755, 0.46160247921943665, 0.4614356458187103, 0.4788169860839844, -0.04101182147860527, 0.5190131664276123, -0.07921440154314041, -0.03844804689288139, 0.4206516146659851]]}, "weight_init": {"label": "glorot_random_normal", "base_label": "init", "seed": null, "dtype": "float32", "mean": 0, "variance": 0.24253562503633297}, "weight_reg": null, "bias_init": {"label": "zeros", "base_label": "init", "dtype": "float32"}, "optim": {"label": "adam", "base_label": "optim"}}, {"index": 2, "name": "hidden1", "label": "swish", "base_label": "nonlinear_gate_layer", "shape": [1, 32], "locked": true}, {"index": 3, "name": "hidden2", "label": "link", "base_label": "link_layer", "shape": [32, 16], "locked": true, "frozen": false, "weight": {"dtype": "float32", "values": [[-0.26645445823669434, -0.39751535654067993, 0.8291307091712952, -0.4999818503856659, -0.18229739367961884, 0.7025730609893799, 0.6198047399520874, 0.8916021585464478, -0.6727319955825806, 0.8322891592979431, -0.24598170816898346, 0.7562399506568909, 0.8869751691818237, -0.04933217540383339, -0.4756646156311035, -0.229376882314682], [-0.009000602178275585, -0.4748300015926361, 0.6811637282371521, -0.2516452670097351, -0.13426823914051056, 1.0429527759552002, 0.6956130266189575, 0.4306328594684601, -0.28070634603500366, 0.1412150263786316, -0.5658104419708252, 0.7751490473747253, 0.5220035314559937, -0.48806679248809814, -0.20407991111278534, -0.10667215287685394], [0.8648925423622131, 0.5854853987693787, -0.6319909691810608, 1.253604531288147, 0.5604960322380066, -0.4508759677410126, -0.22350363433361053, -0.5334560871124268, 0.5265123844146729, -0.802168071269989, 1.0186023712158203, -0.3752857744693756, -0.35989901423454285, 0.8420355319976807, 0.30745944380760193, 0.576525866985321], [0.8897202014923096, 0.4134732782840729, -0.014726866967976093, 0.5438815355300903, 0.2763771414756775, -0.30953696370124817, -0.035516899079084396, -0.25851041078567505, 0.5440476536750793, -0.37888672947883606, 0.8172088861465454, -0.20214565098285675, -0.09604676812887192, 0.7882846593856812, 0.7477489113807678, 0.739313006401062], [-0.14644642174243927, 0.05635157227516174, 0.6782404780387878, -0.3603953421115875, 0.012277837842702866, 0.6313548684120178, 0.43374159932136536, 0.6343687772750854, -0.014187985099852085, 0.6201759576797485, -0.4139656126499176, 0.6309747099876404, 0.6143346428871155, 0.04918790981173515, 0.007936584763228893, 0.17299461364746094], [0.2987091839313507, 0.5014707446098328, 0.5202654004096985, 0.33865776658058167, 0.3102317750453949, 0.4549807608127594, 0.5956878066062927, 0.8310230374336243, 0.41713622212409973, 0.5359224677085876, 0.49183642864227295, 0.6247015595436096, 0.38464322686195374, 0.4287099242210388, 0.27424463629722595, 0.21701762080192566], [-0.26722317934036255, -0.3993821144104004, 0.5747042894363403, 0.03522671014070511, -0.19011680781841278, 0.28816378116607666, 0.7583990097045898, 0.7044630646705627, -0.04592049866914749, 0.9715109467506409, -0.30119943618774414, 0.358961284160614, 0.36393362283706665, -0.6131976842880249, -0.21384447813034058, -0.044803686439991], [0.760034441947937, 0.37180373072624207, 0.3865828812122345, 0.20859311521053314, 0.5333371162414551, 0.3788536787033081, 0.33480745553970337, -0.12121918052434921, 0.3931911587715149, 0.046396903693675995, 0.17533370852470398, 0.42553064227104187, -0.2547813057899475, 0.6023957133293152, 0.634625256061554, 0.7167036533355713], [0.30087044835090637, 0.7401940226554871, -0.10964088141918182, 0.4482077956199646, 0.4818781316280365, 0.3702784478664398, 0.11344489455223083, -0.22288064658641815, 0.3906868100166321, 0.02349582314491272, 0.45681992173194885, 0.1631089448928833, 0.2120470404624939, 0.2847064137458801, 0.3014961779117584, 0.748681902885437], [0.13854901492595673, 0.06573868542909622, 0.49499863386154175, -0.16934271156787872, -0.2963356077671051, 0.6347312331199646, 0.3457804024219513, 0.47654396295547485, 0.1975073665380478, 0.7141776084899902, 0.10795631259679794, 0.8484376072883606, 0.7982900142669678, 0.21356764435768127, 0.19103646278381348, 0.1933826059103012], [-0.4611259996891022, -0.4766574501991272, 0.6186150312423706, 0.0037253883201628923, -0.4014631509780884, 1.0984830856323242, 0.5786939859390259, 0.7737817764282227, -0.35208800435066223, 0.7744280695915222, -0.7568526864051819, 0.5945408344268799, 0.5527053475379944, -0.28218746185302734, -0.2295450121164322, -0.22607527673244476], [1.120367169380188, 0.7069254517555237, -0.6554452180862427, 0.5907690525054932, 0.5835334062576294, -0.1941370964050293, -0.2662915587425232, -0.2674925625324249, 0.7368465662002563, -0.4097083806991577, 0.39180901646614075, -0.45411768555641174, -0.6985023617744446, 0.5865122079849243, 0.5021472573280334, 0.7862475514411926], [0.5068583488464355, 0.6902959942817688, 0.17309707403182983, 0.23791559040546417, 0.49569326639175415, -0.13880516588687897, -0.30082598328590393, -0.3967472314834595, 0.5973944664001465, -0.2717823088169098, 0.656457781791687, -0.1436309516429901, -0.11555763334035873, 0.6411269307136536, 0.5401858687400818, 0.6218484044075012], [-0.9354718327522278, -0.7636346220970154, 1.3034590482711792, -0.6518415808677673, -0.7176778316497803, 0.9121930003166199, 0.7601236701011658, 0.9613405466079712, -0.8068551421165466, 0.7620105743408203, -0.8173714876174927, 0.6731374263763428, 0.7604733109474182, -1.101019024848938, -0.9564180374145508, -0.8409340381622314], [-2.690568208694458, -2.6335465908050537, 1.7662793397903442, -2.412168264389038, -2.1307120323181152, 1.767073392868042, 2.034669876098633, 1.4860728979110718, -2.6418120861053467, 1.6962612867355347, -2.403740882873535, 2.1133837699890137, 1.6755019426345825, -2.628850221633911, -2.7016549110412598, -2.4671647548675537], [0.7978915572166443, 0.6297395825386047, -0.4979924261569977, 0.5077009201049805, 0.7062978148460388, -0.6057062149047852, -0.24298499524593353, -0.6802725791931152, 0.7746164798736572, -0.29827359318733215, 0.5995193123817444, -0.6649056077003479, -0.6924306154251099, 0.30957770347595215, 0.2610786557197571, 0.8799149990081787], [-0.31394830346107483, 0.10223997384309769, 0.3323701322078705, 0.22274893522262573, 0.4038011133670807, 0.015267214737832546, 0.3507815897464752, 0.720143735408783, 0.23664841055870056, 0.17463339865207672, 0.0365312360227108, 0.502906322479248, 1.0221534967422485, 0.166439488530159, 0.13916437327861786, 0.0794248878955841], [0.33726951479911804, 0.11673858761787415, 0.16781005263328552, 0.13955064117908478, 0.1466163545846939, 0.41846808791160583, 0.21919286251068115, 0.5027768015861511, 0.15778467059135437, 0.21916033327579498, -0.02195465750992298, 0.2614837884902954, 0.5319873690605164, 0.23500187695026398, 0.3282555639743805, -0.09830881655216217], [-2.583709955215454, -1.5670862197875977, 1.7141517400741577, -1.9761133193969727, -1.9805790185928345, 1.7134042978286743, 1.4774209260940552, 1.8786969184875488, -2.294403314590454, 1.5501610040664673, -2.5899498462677, 1.706262230873108, 1.7614943981170654, -2.0930521488189697, -2.46952748298645, -2.7148659229278564], [0.21675796806812286, 0.7609331011772156, -0.9332778453826904, 0.9850004315376282, 0.4436191916465759, -0.5938559174537659, -0.5262376666069031, -0.6763972043991089, 1.157135009765625, -0.6983379125595093, 0.3349094092845917, -0.7272024154663086, -0.4878975450992584, 0.6160638332366943, 0.31961145997047424, 0.2256755381822586], [0.5844057202339172, 0.7335715889930725, -0.06924300640821457, 0.5112828612327576, 0.8454894423484802, -0.5093119144439697, -0.6809428930282593, -0.27294921875, 0.9127625823020935, -0.6720544695854187, 0.3687441349029541, -0.30735087394714355, -0.1997157335281372, 0.44181567430496216, 0.5974687933921814, 0.4772525131702423], [0.5385122895240784, 0.35051992535591125, 0.2973707616329193, 0.22621440887451172, 0.5208282470703125, -0.16732396185398102, 0.0534154549241066, -0.3583024740219116, 0.24475616216659546, -0.2730105519294739, 0.5174345374107361, 0.16893330216407776, 0.14420567452907562, 0.4138786196708679, 0.07535570114850998, 0.11796403676271439], [0.5106964111328125, 0.502862274646759, -0.37587323784828186, 0.6629153490066528, 0.5662374496459961, -0.47602155804634094, -0.45538589358329773, 0.0323992557823658, 0.7668096423149109, -0.4790962040424347, 0.8320653438568115, -0.012114218436181545, -0.49414387345314026, 0.4254388213157654, 0.7754059433937073, 0.8332239985466003], [0.09352647513151169, 0.4444694519042969, -0.37673720717430115, 0.5491659641265869, 0.6513640880584717, -0.1994783878326416, 0.14278386533260345, -0.5925891399383545, 0.58706134557724, -0.3155394494533539, 0.5428168773651123, -0.20945245027542114, -0.7177094221115112, 0.5782577395439148, 0.6402567625045776, 0.6977459788322449], [0.2716796398162842, 0.3947250247001648, -0.6827506422996521, 0.5192435383796692, 0.8628995418548584, -0.3746790587902069, -0.46534663438796997, -0.6294690370559692, 0.5524522066116333, -0.4173338711261749, 0.5745289921760559, -0.4533262550830841, -0.39885830879211426, 0.8535333275794983, 0.3642860949039459, 0.9765965342521667], [0.4887825846672058, 0.6508431434631348, 0.10373319685459137, 0.6664307713508606, 0.9354966282844543, -0.5748270153999329, -0.4016098380088806, -0.30315694212913513, 0.21668000519275665, -0.4522703289985657, 0.4854171574115753, -0.45520973205566406, -0.7669849395751953, 0.7764633893966675, 0.7784183621406555, 0.5043241381645203], [0.43584877252578735, 0.8302156329154968, -0.6703767776489258, 0.578137993812561, 0.7305372357368469, -0.5027226805686951, -0.885189414024353, -0.3209259808063507, 1.0522257089614868, -0.849454939365387, 0.4973522424697876, -0.5631303787231445, -0.6243597269058228, 0.8945371508598328, 0.5673342347145081, 0.859373927116394], [-0.6104632019996643, -0.45853137969970703, 0.7165351510047913, -0.12349583208560944, -0.5185336470603943, 0.8429648876190186, 0.6699157953262329, 0.7565832734107971, -0.4540223479270935, 1.087131381034851, -0.6098330616950989, 0.8522861003875732, 0.8506879806518555, -0.4926641583442688, -0.06881704181432724, -0.7275024652481079], [0.5683798789978027, 0.6296254396438599, -0.6458137631416321, 0.3884236514568329, 0.5167431831359863, -0.8885820508003235, -0.3120341897010803, -0.7132613658905029, 0.8785369396209717, -0.9109271168708801, 0.8050774931907654, -0.7138856649398804, -0.6219481825828552, 0.7600530982017517, 0.810090959072113, 0.3948318660259247], [-0.22835372388362885, -0.5349356532096863, 0.7534986138343811, -0.47095543146133423, -0.2844688296318054, 0.8528550267219543, 0.5277188420295715, 0.6582333445549011, -0.5696794390678406, 0.6414391994476318, 0.0033085388131439686, 0.7776289582252502, 0.9395790696144104, -0.8111397624015808, -0.43407249450683594, -0.7018431425094604], [-0.44650131464004517, -0.3595277965068817, 0.9627152681350708, -0.6206963062286377, -0.39594507217407227, 0.8056523203849792, 0.9396933913230896, 0.7467702031135559, -0.3686322569847107, 0.6328867673873901, -0.38325923681259155, 0.37631598114967346, 1.0833712816238403, -0.3227340579032898, -0.3454546630382538, -0.12419268488883972], [0.4876879155635834, 0.4037935435771942, -0.25229158997535706, 0.7654436230659485, 1.0031895637512207, -0.6102714538574219, -0.7297025918960571, -0.37184134125709534, 0.6563193798065186, -0.2227797508239746, 0.6040045619010925, -0.9090515971183777, -0.5774738192558289, 0.7600914239883423, 0.5334099531173706, 0.7307161688804626]]}, "bias": {"dtype": "float32", "values": [[0.5789983868598938, 0.5298747420310974, -0.00909096747636795, 0.5714229345321655, 0.5783600807189941, 0.12470875680446625, 0.16234678030014038, 0.05167105793952942, 0.5373808741569519, 0.1784781962633133, 0.5339449644088745, 0.10911725461483002, 0.1659819334745407, 0.5252515077590942, 0.5593441724777222, 0.5243508815765381]]}, "weight_init": {"label": "glorot_random_normal", "base_label": "init", "seed": null, "dtype": "float32", "mean": 0, "variance": 0.2041241452319315}, "weight_reg": null, "bias_init": {"label": "zeros", "base_label": "init", "dtype": "float32"}, "optim": {"label": "adam", "base_label": "optim"}}, {"index": 4, "name": "hidden2", "label": "swish", "base_label": "nonlinear_gate_layer", "shape": [1, 16], "locked": true}, {"index": 5, "name": "output", "label": "link", "base_label": "link_layer", "shape": [16, 2], "locked": true, "frozen": false, "weight": {"dtype": "float32", "values": [[1.9151279926300049, -1.3086442947387695], [1.476043939590454, -1.1745189428329468], [-1.3566511869430542, 1.4177919626235962], [1.525185227394104, -1.2407395839691162], [0.9518399834632874, -1.3083570003509521], [-1.2978404760360718, 1.0853644609451294], [-1.3032108545303345, 1.8880928754806519], [-1.3045109510421753, 1.048340082168579], [1.2386353015899658, -1.6376209259033203], [-1.216565489768982, 1.187077522277832], [1.96790611743927, -0.9557366967201233], [-1.417994737625122, 1.7527903318405151], [-1.4829565286636353, 1.294486165046692], [1.1752967834472656, -1.409407138824463], [1.1841086149215698, -1.8368756771087646], [1.0856237411499023, -1.7285438776016235]]}, "bias": {"dtype": "float32", "values": [[0.05467702075839043, -0.2207561731338501]]}, "weight_init": {"label": "glorot_random_normal", "base_label": "init", "seed": null, "dtype": "float32", "mean": 0, "variance": 0.3333333333333333}, "weight_reg": null, "bias_init": {"label": "zeros", "base_label": "init", "dtype": "float32"}, "optim": {"label": "adam", "base_label": "optim"}}, {"index": 6, "name": "output", "label": "linear", "base_label": "linear_gate_layer", "shape": [1, 2], "locked": true}, {"index": 7, "name": "binary_classifier_objective", "label": "sigmoid_crossentropy_loss", "base_label": "objective_layer", "shape": [1, 2], "locked": true, "metric": ["loss", "accuracy", "f1_score"]}]}}