{"name": "CategoryClassifier", "label": "feed_forward", "base_label": "feed_forward", "hparam": {"eta": 0.002, "eta_decay": 0.99, "beta_decay1": 0.9, "beta_decay2": 0.999, "momentum": 0.9, "l1_lambda": 0.001, "l2_lambda": 0.001}, "sequencer": {"name": "category_classifier", "label": "sequencer", "base_label": "sequencer", "sequences": [{"index": 0, "name": "input", "label": "swish", "base_label": "nonlinear_gate_layer", "shape": [1, 2], "locked": true}, {"index": 1, "name": "hidden1", "label": "link", "base_label": "link_layer", "shape": [2, 32], "locked": true, "frozen": false, "weight": {"dtype": "float32", "values": [[0.582379162311554, 0.352693647146225, -0.8681134581565857, 0.1256323754787445, -0.3729861378669739, 0.372494637966156, -0.22956344485282898, -0.19169683754444122, 0.04848707467317581, -0.28121599555015564, 0.31060707569122314, 0.36496469378471375, 0.7655861973762512, 0.8489145636558533, -0.5516937375068665, 0.1059127151966095, 0.5082248449325562, 0.4378930628299713, 0.531046986579895, -0.09729573130607605, 0.5778244137763977, 1.5771623849868774, 0.46346378326416016, -0.29420340061187744, -0.16791915893554688, -0.7132441997528076, -0.4947952628135681, -0.3293231427669525, -0.9838486909866333, 0.6376515030860901, -0.09974613785743713, 0.5216290950775146], [0.9890303015708923, -1.2169829607009888, 1.0952162742614746, 0.6993935704231262, 0.024206407368183136, 0.19542941451072693, 0.030586687847971916, -0.19687148928642273, 0.7968113422393799, 0.007214333862066269, 0.16992291808128357, 0.3124292492866516, 0.05227053537964821, 0.001903482130728662, -0.5489656925201416, 0.6196569800376892, 0.3106960654258728, 0.8247781991958618, 0.0019377230200916529, -0.5198235511779785, 0.002160342875868082, 0.003443463472649455, 0.00309932348318398, 0.019180886447429657, -0.49457594752311707, 0.5590339303016663, -0.0014453210169449449, -0.6226179599761963, 0.7780706286430359, -0.5223062038421631, -0.019767316058278084, 0.4964657425880432]]}, "bias": {"dtype": "float32", "values": [[-0.08782723546028137, 0.057268474251031876, -0.019123904407024384, -0.08758813887834549, 0.024536995217204094, -0.06309729069471359, 0.07249641418457031, 0.05704523250460625, -0.08616145700216293, 0.04366447776556015, -0.09715989977121353, -0.1639261245727539, -0.04933867231011391, -0.027849406003952026, 0.01984359510242939, -0.1079007163643837, -0.08061094582080841, -0.09091437608003616, -0.033222611993551254, 0.042226988822221756, -0.037347014993429184, -0.03889916464686394, -0.054398249834775925, 0.0602785162627697, 0.04049291834235191, -0.012175983749330044, 0.024482544511556625, 0.03223789855837822, -0.014120634645223618, 0.05743778124451637, 0.18709947168827057, -0.07724951952695847]]}, "weight_init": {"label": "glorot_random_normal", "base_label": "init", "seed": null, "dtype": "float32", "mean": 0, "variance": 0.24253562503633297}, "weight_reg": {"label": "l1l2_elastic_net", "base_label": "reg"}, "bias_init": {"label": "zeros", "base_label": "init", "dtype": "float32"}, "optim": {"label": "sgd", "base_label": "optim"}}, {"index": 2, "name": "hidden1", "label": "swish", "base_label": "nonlinear_gate_layer", "shape": [1, 32], "locked": true}, {"index": 3, "name": "hidden2", "label": "link", "base_label": "link_layer", "shape": [32, 24], "locked": true, "frozen": false, "weight": {"dtype": "float32", "values": [[0.14529265463352203, 0.0021451388020068407, 0.0136195607483387, 0.3861510157585144, -0.06649813801050186, 0.03820912539958954, 0.018267914652824402, 1.9393550157546997, 2.8782076835632324, 0.17177057266235352, -0.3668944835662842, -0.11450255662202835, 0.040161244571208954, -3.7051444053649902, -3.57196044921875, 0.020003827288746834, 0.010042485781013966, 2.9731404781341553, -0.39403989911079407, 0.07102690637111664, 2.0478696823120117, 0.03882807120680809, 0.1707838475704193, 0.07739630341529846], [-2.018223285675049, -2.186154365539551, -2.0374391078948975, -0.1488446295261383, -1.8612556457519531, -1.759845495223999, -1.8515783548355103, -2.4109082221984863, -2.04551362991333, -0.2636411786079407, 1.285250186920166, 0.14785365760326385, -1.6847931146621704, 9.324576377868652, 2.4500443935394287, -2.1821017265319824, -1.3416295051574707, -0.5958927869796753, -0.9860170483589172, -2.143470525741577, 3.147327184677124, -1.547106146812439, 6.919216156005859, -1.8136849403381348], [-1.6335530281066895, -2.2400166988372803, -1.2620010375976562, 1.1316707134246826, -2.9193012714385986, -2.854912042617798, -1.2528889179229736, 7.128868103027344, 5.213005065917969, 0.40965011715888977, -2.016777515411377, -1.4205456972122192, -2.212622880935669, -4.185327053070068, 1.3481773138046265, -2.328580379486084, -1.9197735786437988, 3.0286948680877686, -1.464020013809204, -2.8648171424865723, -4.181255340576172, -1.003098726272583, -6.475019454956055, -2.316899538040161], [-0.0010651443153619766, 0.04429296404123306, 0.17767994105815887, 0.48209095001220703, -0.019768156111240387, -0.044282130897045135, 0.08061402291059494, 2.935940742492676, 3.511758804321289, 0.08947812765836716, -0.7031398415565491, -0.48732540011405945, -0.2524561583995819, -6.820086479187012, -3.7964444160461426, 0.1535404920578003, -0.08039738982915878, 3.161381244659424, 0.0016602599062025547, -0.17095690965652466, 1.4336190223693848, 0.25698187947273254, -1.842613935470581, -0.08814635872840881], [-0.9915605783462524, -1.7048760652542114, -0.5908656716346741, 0.07235579192638397, -2.0244269371032715, -1.997961163520813, -0.9551767706871033, 2.156921863555908, 1.0043119192123413, -0.005220920778810978, -0.7674784064292908, -0.3468586504459381, -1.3889803886413574, -0.3995576798915863, 2.9649205207824707, -1.3454272747039795, -1.143184781074524, -0.5826067328453064, -1.0548452138900757, -1.8976774215698242, -2.3773741722106934, -0.38319626450538635, -2.927722692489624, -1.6224268674850464], [0.26664549112319946, 0.43283843994140625, 0.3072401285171509, 0.010332145728170872, 0.45127367973327637, 0.5053377151489258, 0.1603037565946579, 0.6567754149436951, 1.7208428382873535, 0.2632598578929901, -0.008992285467684269, -0.010374060831964016, 0.35460159182548523, -1.9231207370758057, -3.9318785667419434, 0.3950483798980713, -0.0911041721701622, 2.4537789821624756, 0.027777960523962975, 0.6522207260131836, 2.91695499420166, 0.1298576295375824, 1.6747972965240479, 0.1543198823928833], [-0.08806851506233215, -0.3529837131500244, 0.36438241600990295, -0.02922970987856388, -0.47434791922569275, -0.512044370174408, 0.23705638945102692, 2.1643145084381104, -0.6976041793823242, -0.017981329932808876, -0.6521639227867126, 0.09279853850603104, 0.08973255008459091, 2.3918280601501465, 6.549288272857666, -0.3616003692150116, 0.3382241129875183, -3.7283215522766113, 0.5264800786972046, -0.6504180431365967, -6.260926246643066, 0.11672583967447281, -4.7575483322143555, -0.23831726610660553], [-1.1462360620498657, -1.2453078031539917, -0.7703904509544373, -0.48625174164772034, -1.49746835231781, -1.3322796821594238, -0.9331672191619873, -0.7529382705688477, -1.4144948720932007, -0.16714350879192352, 0.13208827376365662, 0.0030440327245742083, -1.0076003074645996, 3.449228286743164, 4.734352111816406, -1.3200517892837524, -0.7986427545547485, -1.5581642389297485, -0.7389646172523499, -1.6282869577407837, -1.3006200790405273, -0.8298459053039551, -0.22901049256324768, -1.352624773979187], [-0.08081229031085968, -0.21188025176525116, -0.026097454130649567, 0.6683943867683411, -0.2267276793718338, -0.08192498981952667, 0.09150965511798859, 3.1645796298980713, 3.395498037338257, 0.27102646231651306, -0.823703408241272, -0.4064910411834717, -0.12324632704257965, -7.624194622039795, -3.317711591720581, -0.1562524288892746, -0.3950088918209076, 2.9528186321258545, -0.11713259667158127, -0.2568223476409912, 1.0502837896347046, 0.09842687100172043, -2.540893077850342, -0.5205973386764526], [-0.8050336241722107, -1.2925806045532227, -0.7088079452514648, 0.04144459217786789, -1.6586346626281738, -1.5247478485107422, -0.6701478362083435, 1.9805885553359985, 0.13095368444919586, -0.05561474338173866, -0.44225817918777466, -0.39767488837242126, -0.8097966909408569, 0.10905106365680695, 4.705316066741943, -1.3126425743103027, -0.5707534551620483, -1.8443259000778198, -0.5763654112815857, -1.5495184659957886, -3.6692910194396973, -0.5450987815856934, -3.295844316482544, -1.094132900238037], [0.016622859984636307, 0.11149851977825165, -0.022577540948987007, 0.37076637148857117, 0.16451379656791687, 0.3055607080459595, -0.08819106966257095, 1.2979447841644287, 2.331383228302002, 0.014357932843267918, -0.04782501608133316, -0.14784322679042816, -0.19453981518745422, -3.8990063667297363, -8.949797630310059, 0.06421106308698654, -0.2387481927871704, 3.9806103706359863, -0.2922898232936859, 0.2973860204219818, 3.9217066764831543, -0.024153919890522957, 1.9247692823410034, -0.11804209649562836], [-1.034234881401062, -0.9116194844245911, -0.6478433609008789, 0.971856951713562, -0.9568961262702942, -0.8656085133552551, -0.7861127257347107, 2.581299304962158, 4.9799041748046875, 0.38422444462776184, -0.385233074426651, -0.4237799048423767, -1.18258535861969, -9.908222198486328, -13.329001426696777, -0.5688928365707397, -1.4225999116897583, 6.592198371887207, -1.0448856353759766, -0.5616816282272339, 5.086724758148193, -0.5920714139938354, 1.8781651258468628, -1.3084784746170044], [0.08950772136449814, 0.07498209178447723, 0.035037048161029816, -0.01103756483644247, 0.737870454788208, 0.3679714500904083, 0.26418188214302063, -0.31555601954460144, 0.5602254271507263, 0.1802705079317093, 0.32953789830207825, 0.014958168379962444, 0.17523352801799774, 0.23729786276817322, -2.7714922428131104, 0.382976770401001, 0.3556521236896515, 2.0373268127441406, 0.005343773867934942, 0.4883551299571991, 3.458253860473633, -0.07251835614442825, 3.255025863647461, 0.16076034307479858], [0.25205883383750916, 0.4825558662414551, 0.052756719291210175, 0.01365220732986927, 0.7743583917617798, 0.6007301807403564, 0.11409556120634079, -0.7469695210456848, 0.11284387856721878, -0.1564434915781021, 0.1669602394104004, 0.16762715578079224, 0.21972723305225372, 1.3887139558792114, -1.3423309326171875, 0.3662620186805725, 0.04541977122426033, 1.601381778717041, 0.0177358016371727, 0.7244973182678223, 3.8955066204071045, 0.08942633122205734, 4.3885955810546875, 0.5560133457183838], [-1.7199345827102661, -1.9739947319030762, -1.4167782068252563, -0.0436265654861927, -2.5945558547973633, -2.2852418422698975, -1.622248888015747, 0.24829131364822388, 0.1327667236328125, -0.25706568360328674, 0.07490810006856918, -0.32991933822631836, -2.2566311359405518, 1.454269528388977, 1.782913088798523, -2.441478967666626, -1.458866000175476, 0.09168851375579834, -1.2246063947677612, -2.584641695022583, 0.37229838967323303, -1.1964255571365356, 0.9660072326660156, -2.173708200454712], [0.01951151341199875, -0.10779157280921936, 0.0012935561826452613, 0.7205074429512024, -0.21350336074829102, -0.44654756784439087, -0.004156458657234907, 2.8402085304260254, 3.827662229537964, 0.06703442335128784, -0.8802613019943237, -0.33691734075546265, -0.30710381269454956, -9.414565086364746, -5.462376594543457, 0.023916658014059067, -0.28868982195854187, 3.777709722518921, -0.11596804857254028, -0.2671164870262146, 1.5637191534042358, -0.2852008044719696, -2.008991003036499, -0.18657593429088593], [0.09177745133638382, 0.328609824180603, 0.15076753497123718, 0.14724794030189514, 0.22932665050029755, 0.2584894895553589, -0.16285724937915802, 0.8091167211532593, 2.074178695678711, 0.10586334764957428, -0.0460633859038353, -0.0990036353468895, 0.334960013628006, -2.0009567737579346, -4.640235424041748, 0.38762643933296204, 0.0850069671869278, 2.74753999710083, 0.0250728577375412, 0.4409208595752716, 3.0156235694885254, 0.04144676774740219, 1.747446060180664, 0.17354103922843933], [-0.04218706116080284, 0.026550518348813057, 0.01665666699409485, 0.2552485764026642, 0.057012077420949936, 0.04765322431921959, 0.05982409790158272, 2.3150973320007324, 2.752315044403076, 0.1481054723262787, -0.49337154626846313, -0.0890289917588234, -0.17907240986824036, -4.33647346496582, -3.814131259918213, -0.10105904191732407, -0.10759003460407257, 2.832538604736328, -0.16441404819488525, 0.06675732135772705, 2.0506694316864014, 0.00796752329915762, 0.05326561629772186, 0.05061705783009529], [0.3950044810771942, 0.45611897110939026, 0.18257568776607513, -0.011908628977835178, 0.8351415395736694, 0.9272030591964722, 0.3151106834411621, -0.9762773513793945, 0.1313255876302719, 0.0070646172389388084, 0.4470723569393158, 0.030208319425582886, 0.42919468879699707, 0.6719355583190918, -2.393195152282715, 0.8389103412628174, 0.4191834330558777, 1.5897964239120483, 0.14502476155757904, 0.9870300889015198, 3.2102208137512207, 0.024670900776982307, 3.6291370391845703, 0.48571449518203735], [-1.608350396156311, -1.5634750127792358, -1.1580040454864502, -0.2634468376636505, -1.6165242195129395, -1.859878659248352, -1.1862092018127441, -1.1575734615325928, -1.3494166135787964, -0.4149306118488312, 0.21204154193401337, -0.04615168273448944, -1.1819404363632202, 3.9703259468078613, 2.2689473628997803, -1.5392111539840698, -1.029332160949707, -0.9186107516288757, -0.6114926934242249, -1.7479501962661743, 0.12821520864963531, -1.1337031126022339, 2.099318742752075, -1.1917774677276611], [0.4566314220428467, 0.47322800755500793, 0.17901508510112762, -0.0009486170019954443, 0.7046708464622498, 0.8261496424674988, 0.23917652666568756, -1.2404893636703491, 0.37989285588264465, 0.003623540047556162, 0.19271481037139893, 0.11484820395708084, 0.6306896209716797, 0.5136910080909729, -2.5440003871917725, 0.37304556369781494, 0.44091883301734924, 1.6082711219787598, 0.013295385986566544, 0.732856035232544, 3.351752996444702, 0.16642427444458008, 3.5264902114868164, 0.6889604926109314], [0.020763035863637924, 0.015812888741493225, -0.06696874648332596, -0.06781691312789917, 0.1357259750366211, -0.057509951293468475, -0.20100748538970947, -0.7670079469680786, 0.453548401594162, -0.007586455903947353, 0.262359082698822, -0.011881348676979542, 0.03142356500029564, 1.866214632987976, -1.2841910123825073, 0.051465101540088654, -0.1687573343515396, 2.278998851776123, -0.013240732252597809, 0.02059408463537693, 4.595816135406494, -0.07286085188388824, 4.816714286804199, 0.04707202687859535], [0.36283332109451294, 0.5901809334754944, 0.15933458507061005, -0.0026672964449971914, 0.8831632137298584, 1.1339375972747803, 0.1441752314567566, -1.1997393369674683, 0.6582996845245361, -0.055782921612262726, 0.20352353155612946, 0.39995574951171875, 0.5334585309028625, -0.14228923618793488, -4.1743035316467285, 0.2590026259422302, 0.4752277731895447, 2.231288433074951, 0.006307005416601896, 0.7261155843734741, 3.7194268703460693, 0.005265955347567797, 3.479506254196167, 0.484274685382843], [-0.7388182878494263, -0.9931045174598694, -0.34395256638526917, 0.025756245478987694, -1.346542477607727, -1.3414027690887451, -0.21553808450698853, 2.123539924621582, -0.25412046909332275, 0.12630508840084076, -0.539540708065033, -0.29810768365859985, -0.7212116122245789, 1.3551849126815796, 5.9908552169799805, -1.0232223272323608, -0.46636125445365906, -2.1466333866119385, -0.20837433636188507, -1.201488733291626, -4.146498680114746, -0.15057209134101868, -3.5280394554138184, -0.940679132938385], [-1.6230213642120361, -1.4045016765594482, -1.2242612838745117, -0.37372443079948425, -1.8929476737976074, -1.9807111024856567, -1.1946303844451904, -0.7966476082801819, -0.9139243364334106, -0.1384827047586441, 0.2866269052028656, -0.08274388313293457, -1.3253326416015625, 3.4632256031036377, 2.3765833377838135, -1.7510814666748047, -0.878348171710968, -0.9984342455863953, -0.8570979833602905, -1.6947555541992188, 0.31354308128356934, -0.8335598111152649, 1.6322436332702637, -1.5755064487457275], [-1.240749478340149, -2.1546058654785156, -0.883700430393219, 1.0245410203933716, -2.8959767818450928, -2.759770393371582, -1.3591245412826538, 9.235517501831055, 5.148449897766113, 0.43289148807525635, -1.4051744937896729, -1.2661619186401367, -2.6406409740448, -3.132697343826294, 1.5568984746932983, -2.0589427947998047, -2.579619884490967, 2.052400588989258, -1.7829619646072388, -2.590769052505493, -4.207029342651367, -0.6295520067214966, -5.084902286529541, -2.8127129077911377], [-1.1201410293579102, -1.7094316482543945, -1.4174054861068726, 0.049553968012332916, -1.8824776411056519, -2.373826742172241, -1.1374921798706055, 1.1966718435287476, 0.6224571466445923, -0.09396031498908997, -0.15810170769691467, -0.20516662299633026, -1.6742905378341675, 0.3101426362991333, 2.790341377258301, -1.905971884727478, -1.4240469932556152, -0.3314148485660553, -0.8537703156471252, -2.121701240539551, -1.4948816299438477, -0.7973724007606506, -1.4871755838394165, -1.5702927112579346], [-1.5500882863998413, -2.0627381801605225, -1.104111671447754, -0.17467166483402252, -2.1430044174194336, -2.049339532852173, -1.4610950946807861, -0.4516174793243408, -0.38538017868995667, -0.17231835424900055, 0.1487223207950592, -0.10872258991003036, -1.7075350284576416, 2.8270437717437744, 1.9068058729171753, -2.0067286491394043, -1.2839261293411255, -0.040809303522109985, -1.1158771514892578, -2.275329113006592, 0.3980613648891449, -1.4057660102844238, 1.516628623008728, -1.7219743728637695], [-2.1454620361328125, -2.59218168258667, -1.7508900165557861, 1.1435495615005493, -3.2046711444854736, -3.5171473026275635, -1.7118533849716187, 9.787894248962402, 5.288168907165527, 0.48151108622550964, -1.441864252090454, -1.2887874841690063, -3.3585050106048584, -2.676943063735962, 1.7219352722167969, -2.6263427734375, -2.7335619926452637, 2.4384751319885254, -2.2296950817108154, -3.3791332244873047, -4.195035934448242, -1.1107861995697021, -4.971660614013672, -3.510190963745117], [0.15904979407787323, 0.5102261900901794, -0.005765822716057301, -1.1542370319366455, 0.9890705347061157, 1.0561374425888062, 0.036288075149059296, -8.60189151763916, -4.981396198272705, -0.5666491985321045, 1.3668140172958374, 0.4541129469871521, 0.5196707248687744, 5.655681133270264, 1.6105551719665527, 0.5060597658157349, 0.6615204811096191, -1.9204045534133911, 0.537123441696167, 0.9069882035255432, 3.855926513671875, 0.19092030823230743, 6.565789222717285, 0.5183543562889099], [1.023594617843628, 1.4952651262283325, 1.0101423263549805, -0.4071093797683716, 1.5182820558547974, 1.5818814039230347, 1.0460402965545654, -1.4514368772506714, -4.223935127258301, 0.01103056501597166, 0.17734219133853912, 0.3100492060184479, 1.696203351020813, 7.759869575500488, 9.604727745056152, 1.3434230089187622, 1.5615118741989136, -6.481810092926025, 0.7216293215751648, 1.3763841390609741, -5.376248359680176, 0.7725693583488464, -1.829472541809082, 1.8871784210205078], [0.04443616047501564, 0.5577330589294434, 0.14785151183605194, 0.5512324571609497, 0.36115217208862305, 0.5227805376052856, 0.13916617631912231, 1.350586175918579, 2.0751729011535645, 0.04571732133626938, -0.06279414892196655, -0.008374493569135666, -0.05254779011011124, -2.624652862548828, -3.946469783782959, 0.3198641240596771, 0.0881960541009903, 2.6077938079833984, 0.024280907586216927, 0.4259885251522064, 2.5078961849212646, -0.008061325177550316, 1.080795407295227, 0.19911326467990875]]}, "bias": {"dtype": "float32", "values": [[1.7287921905517578, 2.0768072605133057, 1.4205543994903564, 0.1280384659767151, 2.288550853729248, 2.284975051879883, 1.5224682092666626, -0.3480468988418579, -2.4152920246124268, 0.2776961326599121, -0.06082972511649132, 0.22442381083965302, 1.9093573093414307, 3.7910869121551514, 6.085341453552246, 2.025874614715576, 1.512738585472107, -4.116665840148926, 1.1606653928756714, 2.2807180881500244, -4.287522792816162, 1.1269118785858154, -2.04665470123291, 2.037898302078247]]}, "weight_init": {"label": "glorot_random_normal", "base_label": "init", "seed": null, "dtype": "float32", "mean": 0, "variance": 0.1889822365046136}, "weight_reg": {"label": "l1l2_elastic_net", "base_label": "reg"}, "bias_init": {"label": "zeros", "base_label": "init", "dtype": "float32"}, "optim": {"label": "adam", "base_label": "optim"}}, {"index": 4, "name": "hidden2", "label": "swish", "base_label": "nonlinear_gate_layer", "shape": [1, 24], "locked": true}, {"index": 5, "name": "output", "label": "link", "base_label": "link_layer", "shape": [24, 3], "locked": true, "frozen": false, "weight": {"dtype": "float32", "values": [[0.26524385809898376, 0.2088375836610794, -0.1883750855922699], [0.154579758644104, 0.051076192408800125, -0.20460331439971924], [0.03445235639810562, 0.0721593126654625, -0.398855984210968], [-0.23816274106502533, 0.06399764865636826, -0.021477656438946724], [0.4167768359184265, 0.14461486041545868, -0.3037934899330139], [0.8445279002189636, 0.40391555428504944, -0.27098968625068665], [0.021952517330646515, 0.0011207042261958122, -0.3153725862503052], [-1.2598278522491455, 0.0011263813357800245, 0.8233196139335632], [-0.7535038590431213, 0.0021442645229399204, 1.071928858757019], [-0.04947308823466301, 0.23941946029663086, -2.8816986741730943e-05], [-5.9329482610337436e-05, -0.04606006294488907, 0.0002455002977512777], [0.1251899152994156, -0.13616293668746948, 1.4551920912708738e-06], [0.33843156695365906, 0.001841690274886787, -0.33221516013145447], [-1.42458176612854, 0.020235978066921234, 1.448430061340332], [-1.9630098342895508, 0.29147085547447205, 2.1164944171905518], [0.33029988408088684, 0.17823843657970428, -0.4634477496147156], [0.3347921073436737, -0.38188818097114563, -0.5898235440254211], [-1.2774335145950317, -0.24899046123027802, 1.091871738433838], [0.6504724621772766, 0.0006445645703934133, -0.010494543239474297], [0.32977110147476196, 0.09239239245653152, -0.4562704563140869], [-1.4601125717163086, -0.09788445383310318, 1.3881285190582275], [0.031722813844680786, 0.2259138822555542, -0.3636946678161621], [-1.3858898878097534, 0.026958715170621872, 1.3589681386947632], [0.3467874825000763, 0.0033852437045425177, -0.35699954628944397]]}, "bias": {"dtype": "float32", "values": [[0.0020592445507645607, 0.004912869073450565, -0.006972123868763447]]}, "weight_init": {"label": "glorot_random_normal", "base_label": "init", "seed": null, "dtype": "float32", "mean": 0, "variance": 0.2721655269759087}, "weight_reg": {"label": "l1l2_elastic_net", "base_label": "reg"}, "bias_init": {"label": "zeros", "base_label": "init", "dtype": "float32"}, "optim": {"label": "sgd", "base_label": "optim"}}, {"index": 6, "name": "output", "label": "linear", "base_label": "linear_gate_layer", "shape": [1, 3], "locked": true}, {"index": 7, "name": "category_classifier_objective", "label": "softmax_crossentropy_loss", "base_label": "objective_layer", "shape": [1, 3], "locked": true, "metric": ["loss", "accuracy"]}]}}